digraph Tree {
node [shape=box] ;
0 [label="MedInc <= 5.086\nmse = 1.327\nsamples = 15480\nvalue = 2.057"] ;
1 [label="MedInc <= 3.132\nmse = 0.845\nsamples = 12350\nvalue = 1.735"] ;
0 -> 1 [labeldistance=2.5, labelangle=45, headlabel="True"] ;
2 [label="AveOccup <= 2.161\nmse = 0.561\nsamples = 6157\nvalue = 1.357"] ;
1 -> 2 ;
3 [label="mse = 1.082\nsamples = 910\nvalue = 1.901"] ;
2 -> 3 ;
4 [label="mse = 0.41\nsamples = 5247\nvalue = 1.263"] ;
2 -> 4 ;
5 [label="AveOccup <= 2.373\nmse = 0.844\nsamples = 6193\nvalue = 2.11"] ;
1 -> 5 ;
6 [label="mse = 1.283\nsamples = 1412\nvalue = 2.833"] ;
5 -> 6 ;
7 [label="mse = 0.515\nsamples = 4781\nvalue = 1.897"] ;
5 -> 7 ;
8 [label="MedInc <= 6.868\nmse = 1.206\nsamples = 3130\nvalue = 3.328"] ;
0 -> 8 [labeldistance=2.5, labelangle=-45, headlabel="False"] ;
9 [label="AveOccup <= 2.746\nmse = 0.885\nsamples = 2167\nvalue = 2.931"] ;
8 -> 9 ;
10 [label="mse = 0.991\nsamples = 897\nvalue = 3.425"] ;
9 -> 10 ;
11 [label="mse = 0.517\nsamples = 1270\nvalue = 2.582"] ;
9 -> 11 ;
12 [label="MedInc <= 7.815\nmse = 0.777\nsamples = 963\nvalue = 4.221"] ;
8 -> 12 ;
13 [label="mse = 0.741\nsamples = 389\nvalue = 3.698"] ;
12 -> 13 ;
14 [label="mse = 0.491\nsamples = 574\nvalue = 4.575"] ;
12 -> 14 ;
}