digraph Tree {
node [shape=box] ;
0 [label="MedInc <= 5.1\nmse = 1.336\nsamples = 15480\nvalue = 2.061"] ;
1 [label="MedInc <= 3.071\nmse = 0.841\nsamples = 12363\nvalue = 1.735"] ;
0 -> 1 [labeldistance=2.5, labelangle=45, headlabel="True"] ;
2 [label="AveRooms <= 4.176\nmse = 0.567\nsamples = 5910\nvalue = 1.352"] ;
1 -> 2 ;
3 [label="mse = 0.683\nsamples = 2132\nvalue = 1.658"] ;
2 -> 3 ;
4 [label="mse = 0.419\nsamples = 3778\nvalue = 1.179"] ;
2 -> 4 ;
5 [label="AveOccup <= 2.35\nmse = 0.835\nsamples = 6453\nvalue = 2.086"] ;
1 -> 5 ;
6 [label="mse = 1.337\nsamples = 1408\nvalue = 2.803"] ;
5 -> 6 ;
7 [label="mse = 0.511\nsamples = 5045\nvalue = 1.886"] ;
5 -> 7 ;
8 [label="MedInc <= 6.868\nmse = 1.205\nsamples = 3117\nvalue = 3.355"] ;
0 -> 8 [labeldistance=2.5, labelangle=-45, headlabel="False"] ;
9 [label="AveOccup <= 2.599\nmse = 0.903\nsamples = 2141\nvalue = 2.957"] ;
8 -> 9 ;
10 [label="mse = 1.064\nsamples = 632\nvalue = 3.594"] ;
9 -> 10 ;
11 [label="mse = 0.595\nsamples = 1509\nvalue = 2.691"] ;
9 -> 11 ;
12 [label="MedInc <= 7.834\nmse = 0.758\nsamples = 976\nvalue = 4.228"] ;
8 -> 12 ;
13 [label="mse = 0.728\nsamples = 400\nvalue = 3.742"] ;
12 -> 13 ;
14 [label="mse = 0.501\nsamples = 576\nvalue = 4.565"] ;
12 -> 14 ;
}